digraph Tree {
node [shape=box, fontname="helvetica"] ;
edge [fontname="helvetica"] ;
0 [label="Color_Red <= 0.5\ngini = 0.625\nsamples = 8\nvalue = [4, 2, 2]\nclass = Apple"] ;
1 [label="Color_Green <= 0.5\ngini = 0.5\nsamples = 4\nvalue = [0, 2, 2]\nclass = Grape"] ;
0 -> 1 [labeldistance=2.5, labelangle=45, headlabel="True"] ;
2 [label="gini = 0.0\nsamples = 2\nvalue = [0, 0, 2]\nclass = Lemon"] ;
1 -> 2 ;
3 [label="gini = 0.0\nsamples = 2\nvalue = [0, 2, 0]\nclass = Grape"] ;
1 -> 3 ;
4 [label="gini = 0.0\nsamples = 4\nvalue = [4, 0, 0]\nclass = Apple"] ;
0 -> 4 [labeldistance=2.5, labelangle=-45, headlabel="False"] ;
}